%YAML:1.0
---
opencv_ml_dtree:
   format: 3
   is_classifier: 0
   var_all: 5
   var_count: 4
   ord_var_count: 5
   cat_var_count: 0
   training_params:
      use_surrogates: 0
      max_categories: 2
      regression_accuracy: 0.0099999997764825821
      max_depth: 5
      min_sample_count: 10
      cross_validation_folds: 0
   global_var_idx: 1
   var_idx: [ 0, 1, 2, 3 ]
   var_type: [ 0, 0, 0, 0, 0 ]
   cat_ofs: [ 0, 0, 0, 0, 0, 0, 0, 0 ]
   missing_subst: [ 0., 0., 0., 0., 0. ]
   nodes:
      -
         depth: 0
         value: 0.6632280344453545
         splits:
            - { var:2, quality:29683.1328125, le:0.5 }
      -
         depth: 1
         value: 0.018199419167473377
         splits:
            - { var:0, quality:6.6951422691345215, le:1.5 }
      -
         depth: 2
         value: 0.047301394784718009
         splits:
            - { var:3, quality:7.0764122009277344, le:0.5 }
      -
         depth: 3
         value: 0.0012330456226880395
         splits:
            - { var:0, quality:0.0015432098880410194, le:0.5 }
      -
         depth: 4
         value: 0.
      -
         depth: 4
         value: 0.0015432098765432098
      -
         depth: 3
         value: 0.091885441527446307
         splits:
            - { var:0, quality:12.977611541748047, le:0.5 }
      -
         depth: 4
         value: 0.5
         splits:
            - { var:3, quality:8.5, le:1.5 }
      -
         depth: 5
         value: 0.5
      -
         depth: 5
         value: 0.5
      -
         depth: 4
         value: 0.074626865671641784
         splits:
            - { var:3, quality:4.5067873001098633, le:1.5 }
      -
         depth: 5
         value: 0.076923076923076927
      -
         depth: 5
         value: 0.058823529411764705
      -
         depth: 2
         value: 0.014733497038855988
         splits:
            - { var:0, quality:3.9495112895965576, le:2.5 }
      -
         depth: 3
         value: 0.
      -
         depth: 3
         value: 0.019360349245515801
         splits:
            - { var:0, quality:4.6386542320251465, le:3.5 }
      -
         depth: 4
         value: 0.038885288399222291
         splits:
            - { var:1, quality:11.086041450500488, le:0.5 }
      -
         depth: 5
         value: 0.0061633281972265025
      -
         depth: 5
         value: 0.21224489795918366
      -
         depth: 4
         value: 0.016010673782521682
         splits:
            - { var:0, quality:2.6069400310516357, le:4.5 }
      -
         depth: 5
         value: 0.022046878626131354
      -
         depth: 5
         value: 0.010458911419423693
      -
         depth: 1
         value: 1.
